digraph Tree {
node [shape=box] ;
0 [label="X[12] <= -0.031\ngini = 0.5\nsamples = 2534\nvalue = [1268, 1266]"] ;
1 [label="X[5] <= -0.305\ngini = 0.104\nsamples = 1295\nvalue = [71, 1224]"] ;
0 -> 1 [labeldistance=2.5, labelangle=45, headlabel="True"] ;
2 [label="X[12] <= -0.403\ngini = 0.479\nsamples = 68\nvalue = [41, 27]"] ;
1 -> 2 ;
3 [label="X[9] <= 0.168\ngini = 0.437\nsamples = 31\nvalue = [10, 21]"] ;
2 -> 3 ;
4 [label="X[1] <= -0.834\ngini = 0.1\nsamples = 19\nvalue = [1, 18]"] ;
3 -> 4 ;
5 [label="gini = 0.0\nsamples = 1\nvalue = [1, 0]"] ;
4 -> 5 ;
6 [label="gini = 0.0\nsamples = 18\nvalue = [0, 18]"] ;
4 -> 6 ;
7 [label="X[17] <= -0.247\ngini = 0.375\nsamples = 12\nvalue = [9, 3]"] ;
3 -> 7 ;
8 [label="gini = 0.0\nsamples = 8\nvalue = [8, 0]"] ;
7 -> 8 ;
9 [label="X[18] <= 0.464\ngini = 0.375\nsamples = 4\nvalue = [1, 3]"] ;
7 -> 9 ;
10 [label="gini = 0.0\nsamples = 3\nvalue = [0, 3]"] ;
9 -> 10 ;
11 [label="gini = 0.0\nsamples = 1\nvalue = [1, 0]"] ;
9 -> 11 ;
12 [label="X[10] <= 0.447\ngini = 0.272\nsamples = 37\nvalue = [31, 6]"] ;
2 -> 12 ;
13 [label="X[5] <= -0.347\ngini = 0.074\nsamples = 26\nvalue = [25, 1]"] ;
12 -> 13 ;
14 [label="gini = 0.0\nsamples = 23\nvalue = [23, 0]"] ;
13 -> 14 ;
15 [label="X[8] <= 0.354\ngini = 0.444\nsamples = 3\nvalue = [2, 1]"] ;
13 -> 15 ;
16 [label="gini = 0.0\nsamples = 1\nvalue = [0, 1]"] ;
15 -> 16 ;
17 [label="gini = 0.0\nsamples = 2\nvalue = [2, 0]"] ;
15 -> 17 ;
18 [label="X[10] <= 0.946\ngini = 0.496\nsamples = 11\nvalue = [6, 5]"] ;
12 -> 18 ;
19 [label="X[1] <= 0.165\ngini = 0.408\nsamples = 7\nvalue = [2, 5]"] ;
18 -> 19 ;
20 [label="gini = 0.0\nsamples = 5\nvalue = [0, 5]"] ;
19 -> 20 ;
21 [label="gini = 0.0\nsamples = 2\nvalue = [2, 0]"] ;
19 -> 21 ;
22 [label="gini = 0.0\nsamples = 4\nvalue = [4, 0]"] ;
18 -> 22 ;
23 [label="X[12] <= -0.231\ngini = 0.048\nsamples = 1227\nvalue = [30, 1197]"] ;
1 -> 23 ;
24 [label="X[13] <= -1.115\ngini = 0.018\nsamples = 1129\nvalue = [10, 1119]"] ;
23 -> 24 ;
25 [label="X[3] <= -0.277\ngini = 0.426\nsamples = 13\nvalue = [4, 9]"] ;
24 -> 25 ;
26 [label="gini = 0.0\nsamples = 9\nvalue = [0, 9]"] ;
25 -> 26 ;
27 [label="gini = 0.0\nsamples = 4\nvalue = [4, 0]"] ;
25 -> 27 ;
28 [label="X[5] <= 2.63\ngini = 0.011\nsamples = 1116\nvalue = [6, 1110]"] ;
24 -> 28 ;
29 [label="X[4] <= -1.227\ngini = 0.009\nsamples = 1115\nvalue = [5, 1110]"] ;
28 -> 29 ;
30 [label="X[12] <= -0.325\ngini = 0.087\nsamples = 88\nvalue = [4, 84]"] ;
29 -> 30 ;
31 [label="X[12] <= -0.559\ngini = 0.024\nsamples = 84\nvalue = [1, 83]"] ;
30 -> 31 ;
32 [label="gini = 0.0\nsamples = 79\nvalue = [0, 79]"] ;
31 -> 32 ;
33 [label="X[0] <= -2.862\ngini = 0.32\nsamples = 5\nvalue = [1, 4]"] ;
31 -> 33 ;
34 [label="gini = 0.0\nsamples = 1\nvalue = [1, 0]"] ;
33 -> 34 ;
35 [label="gini = 0.0\nsamples = 4\nvalue = [0, 4]"] ;
33 -> 35 ;
36 [label="X[14] <= 0.34\ngini = 0.375\nsamples = 4\nvalue = [3, 1]"] ;
30 -> 36 ;
37 [label="gini = 0.0\nsamples = 3\nvalue = [3, 0]"] ;
36 -> 37 ;
38 [label="gini = 0.0\nsamples = 1\nvalue = [0, 1]"] ;
36 -> 38 ;
39 [label="X[13] <= -1.064\ngini = 0.002\nsamples = 1027\nvalue = [1, 1026]"] ;
29 -> 39 ;
40 [label="X[13] <= -1.065\ngini = 0.016\nsamples = 126\nvalue = [1, 125]"] ;
39 -> 40 ;
41 [label="gini = 0.0\nsamples = 122\nvalue = [0, 122]"] ;
40 -> 41 ;
42 [label="X[5] <= 0.36\ngini = 0.375\nsamples = 4\nvalue = [1, 3]"] ;
40 -> 42 ;
43 [label="gini = 0.0\nsamples = 1\nvalue = [1, 0]"] ;
42 -> 43 ;
44 [label="gini = 0.0\nsamples = 3\nvalue = [0, 3]"] ;
42 -> 44 ;
45 [label="gini = 0.0\nsamples = 901\nvalue = [0, 901]"] ;
39 -> 45 ;
46 [label="gini = 0.0\nsamples = 1\nvalue = [1, 0]"] ;
28 -> 46 ;
47 [label="X[13] <= 0.528\ngini = 0.325\nsamples = 98\nvalue = [20, 78]"] ;
23 -> 47 ;
48 [label="X[4] <= 0.466\ngini = 0.466\nsamples = 27\nvalue = [17, 10]"] ;
47 -> 48 ;
49 [label="X[11] <= -1.697\ngini = 0.219\nsamples = 16\nvalue = [14, 2]"] ;
48 -> 49 ;
50 [label="X[7] <= -0.215\ngini = 0.444\nsamples = 3\nvalue = [1, 2]"] ;
49 -> 50 ;
51 [label="gini = 0.0\nsamples = 2\nvalue = [0, 2]"] ;
50 -> 51 ;
52 [label="gini = 0.0\nsamples = 1\nvalue = [1, 0]"] ;
50 -> 52 ;
53 [label="gini = 0.0\nsamples = 13\nvalue = [13, 0]"] ;
49 -> 53 ;
54 [label="X[12] <= -0.144\ngini = 0.397\nsamples = 11\nvalue = [3, 8]"] ;
48 -> 54 ;
55 [label="gini = 0.0\nsamples = 3\nvalue = [3, 0]"] ;
54 -> 55 ;
56 [label="gini = 0.0\nsamples = 8\nvalue = [0, 8]"] ;
54 -> 56 ;
57 [label="X[1] <= -0.248\ngini = 0.081\nsamples = 71\nvalue = [3, 68]"] ;
47 -> 57 ;
58 [label="X[7] <= -0.234\ngini = 0.444\nsamples = 3\nvalue = [2, 1]"] ;
57 -> 58 ;
59 [label="gini = 0.0\nsamples = 2\nvalue = [2, 0]"] ;
58 -> 59 ;
60 [label="gini = 0.0\nsamples = 1\nvalue = [0, 1]"] ;
58 -> 60 ;
61 [label="X[16] <= 2.123\ngini = 0.029\nsamples = 68\nvalue = [1, 67]"] ;
57 -> 61 ;
62 [label="gini = 0.0\nsamples = 67\nvalue = [0, 67]"] ;
61 -> 62 ;
63 [label="gini = 0.0\nsamples = 1\nvalue = [1, 0]"] ;
61 -> 63 ;
64 [label="X[12] <= 0.207\ngini = 0.065\nsamples = 1239\nvalue = [1197, 42]"] ;
0 -> 64 [labeldistance=2.5, labelangle=-45, headlabel="False"] ;
65 [label="X[5] <= 0.215\ngini = 0.339\nsamples = 125\nvalue = [98, 27]"] ;
64 -> 65 ;
66 [label="X[13] <= 0.829\ngini = 0.085\nsamples = 90\nvalue = [86, 4]"] ;
65 -> 66 ;
67 [label="X[12] <= 0.204\ngini = 0.044\nsamples = 88\nvalue = [86, 2]"] ;
66 -> 67 ;
68 [label="X[13] <= 0.638\ngini = 0.023\nsamples = 86\nvalue = [85, 1]"] ;
67 -> 68 ;
69 [label="gini = 0.0\nsamples = 82\nvalue = [82, 0]"] ;
68 -> 69 ;
70 [label="X[17] <= 1.206\ngini = 0.375\nsamples = 4\nvalue = [3, 1]"] ;
68 -> 70 ;
71 [label="gini = 0.0\nsamples = 1\nvalue = [0, 1]"] ;
70 -> 71 ;
72 [label="gini = 0.0\nsamples = 3\nvalue = [3, 0]"] ;
70 -> 72 ;
73 [label="X[18] <= 0.541\ngini = 0.5\nsamples = 2\nvalue = [1, 1]"] ;
67 -> 73 ;
74 [label="gini = 0.0\nsamples = 1\nvalue = [0, 1]"] ;
73 -> 74 ;
75 [label="gini = 0.0\nsamples = 1\nvalue = [1, 0]"] ;
73 -> 75 ;
76 [label="gini = 0.0\nsamples = 2\nvalue = [0, 2]"] ;
66 -> 76 ;
77 [label="X[1] <= 0.813\ngini = 0.451\nsamples = 35\nvalue = [12, 23]"] ;
65 -> 77 ;
78 [label="gini = 0.0\nsamples = 21\nvalue = [0, 21]"] ;
77 -> 78 ;
79 [label="X[1] <= 1.474\ngini = 0.245\nsamples = 14\nvalue = [12, 2]"] ;
77 -> 79 ;
80 [label="gini = 0.0\nsamples = 12\nvalue = [12, 0]"] ;
79 -> 80 ;
81 [label="gini = 0.0\nsamples = 2\nvalue = [0, 2]"] ;
79 -> 81 ;
82 [label="X[0] <= -3.429\ngini = 0.027\nsamples = 1114\nvalue = [1099, 15]"] ;
64 -> 82 ;
83 [label="gini = 0.0\nsamples = 1\nvalue = [0, 1]"] ;
82 -> 83 ;
84 [label="X[9] <= -1.839\ngini = 0.025\nsamples = 1113\nvalue = [1099, 14]"] ;
82 -> 84 ;
85 [label="X[14] <= 0.263\ngini = 0.5\nsamples = 2\nvalue = [1, 1]"] ;
84 -> 85 ;
86 [label="gini = 0.0\nsamples = 1\nvalue = [0, 1]"] ;
85 -> 86 ;
87 [label="gini = 0.0\nsamples = 1\nvalue = [1, 0]"] ;
85 -> 87 ;
88 [label="X[8] <= 0.063\ngini = 0.023\nsamples = 1111\nvalue = [1098, 13]"] ;
84 -> 88 ;
89 [label="gini = 0.0\nsamples = 823\nvalue = [823, 0]"] ;
88 -> 89 ;
90 [label="X[18] <= 0.084\ngini = 0.086\nsamples = 288\nvalue = [275, 13]"] ;
88 -> 90 ;
91 [label="X[10] <= 1.436\ngini = 0.018\nsamples = 217\nvalue = [215, 2]"] ;
90 -> 91 ;
92 [label="X[5] <= -0.826\ngini = 0.009\nsamples = 216\nvalue = [215, 1]"] ;
91 -> 92 ;
93 [label="X[5] <= -0.83\ngini = 0.1\nsamples = 19\nvalue = [18, 1]"] ;
92 -> 93 ;
94 [label="gini = 0.0\nsamples = 18\nvalue = [18, 0]"] ;
93 -> 94 ;
95 [label="gini = 0.0\nsamples = 1\nvalue = [0, 1]"] ;
93 -> 95 ;
96 [label="gini = 0.0\nsamples = 197\nvalue = [197, 0]"] ;
92 -> 96 ;
97 [label="gini = 0.0\nsamples = 1\nvalue = [0, 1]"] ;
91 -> 97 ;
98 [label="X[17] <= 0.489\ngini = 0.262\nsamples = 71\nvalue = [60, 11]"] ;
90 -> 98 ;
99 [label="X[19] <= 0.311\ngini = 0.418\nsamples = 37\nvalue = [26, 11]"] ;
98 -> 99 ;
100 [label="X[14] <= 0.488\ngini = 0.293\nsamples = 28\nvalue = [23, 5]"] ;
99 -> 100 ;
101 [label="X[10] <= 0.399\ngini = 0.459\nsamples = 14\nvalue = [9, 5]"] ;
100 -> 101 ;
102 [label="X[6] <= -0.364\ngini = 0.198\nsamples = 9\nvalue = [8, 1]"] ;
101 -> 102 ;
103 [label="X[8] <= 1.534\ngini = 0.5\nsamples = 2\nvalue = [1, 1]"] ;
102 -> 103 ;
104 [label="gini = 0.0\nsamples = 1\nvalue = [0, 1]"] ;
103 -> 104 ;
105 [label="gini = 0.0\nsamples = 1\nvalue = [1, 0]"] ;
103 -> 105 ;
106 [label="gini = 0.0\nsamples = 7\nvalue = [7, 0]"] ;
102 -> 106 ;
107 [label="X[19] <= -0.649\ngini = 0.32\nsamples = 5\nvalue = [1, 4]"] ;
101 -> 107 ;
108 [label="gini = 0.0\nsamples = 1\nvalue = [1, 0]"] ;
107 -> 108 ;
109 [label="gini = 0.0\nsamples = 4\nvalue = [0, 4]"] ;
107 -> 109 ;
110 [label="gini = 0.0\nsamples = 14\nvalue = [14, 0]"] ;
100 -> 110 ;
111 [label="X[18] <= 0.278\ngini = 0.444\nsamples = 9\nvalue = [3, 6]"] ;
99 -> 111 ;
112 [label="X[8] <= 0.704\ngini = 0.375\nsamples = 4\nvalue = [3, 1]"] ;
111 -> 112 ;
113 [label="gini = 0.0\nsamples = 1\nvalue = [0, 1]"] ;
112 -> 113 ;
114 [label="gini = 0.0\nsamples = 3\nvalue = [3, 0]"] ;
112 -> 114 ;
115 [label="gini = 0.0\nsamples = 5\nvalue = [0, 5]"] ;
111 -> 115 ;
116 [label="gini = 0.0\nsamples = 34\nvalue = [34, 0]"] ;
98 -> 116 ;
}
